svm_type one_class 
kernel_type rbf 
gamma 0.14285714285714285 
nr_class 2 
total_sv 11 
rho 3.2592133535323975 
SV 
0.167167800671 1:-0.99708879 2:-0.090524881 3:0.10405512 4:-0.12136777 5:0.13176686 6:0.042009883 7:-0.67005655 
0.427730389006 1:-0.97962154 2:-0.60995228 3:0.57697866 4:-0.53208851 5:0.45360644 6:-0.090952293 7:-0.49815636 
1 1:-0.97671033 2:0.72788003 3:-0.70805937 4:0.66970115 5:-0.62541916 6:0.53950033 7:0.65197441 
0.872332229336 1:-0.92430859 2:-0.4062713 3:0.4654502 4:-0.55371466 5:0.70111722 6:-0.83840625 7:0.48007637 
0.50095512524 1:0.19359534 2:-1 3:1 4:-1 5:1 6:-0.72259239 7:-0.32359456 
0.812323094739 1:0.31586608 2:1 3:-0.96223216 4:0.89541301 5:-0.81167461 6:0.68969112 7:0.8097452 
1 1:0.78165939 2:0.97818678 3:-1 4:1 5:-1 6:1 7:0.78116478 
0.418385578267 1:0.86608443 2:-0.0081799591 3:0.047706096 4:-0.096621708 5:0.14706905 6:-0.0023860606 7:-0.90925241 
1 1:0.88064047 2:-0.87457396 3:0.85589657 4:-0.83917724 5:0.81919061 6:-0.49473482 7:-0.54501537 
0.571407127988 1:0.8922853 2:-0.4864349 3:0.54418366 4:-0.63346501 5:0.79194424 6:-0.96681466 7:0.45996343 
0.109698654752 1:0.90975255 2:0.73769598 3:-0.72530222 4:0.69317848 5:-0.65849932 6:0.63253953 7:0.27984859 
