svm_type one_class 
kernel_type rbf 
gamma 0.16666666666666666 
nr_class 2 
total_sv 10 
rho 3.40644028208317 
SV 
0.75565404794 1:0.91220177 2:-0.89981679 3:0.86649175 4:-0.84012126 5:0.85925854 6:0.28333237 
0.797778322778 1:0.039127471 2:0.031722176 3:-0.14862127 4:0.34922882 5:-0.65286226 6:0.87222969 
1 1:-1 2:1 3:-1 4:1 5:-0.72259239 6:-0.32359456 
1 1:-0.77886844 2:0.80863466 3:-0.86398231 4:0.97378095 5:-1 6:0.17786343 
0.0173445861822 1:-0.15569189 2:0.24199625 3:-0.37447794 4:0.59987325 5:-0.92607099 6:0.64602292 
1 1:1 2:-0.96223216 3:0.89541301 4:-0.81167461 5:0.68969112 6:0.8097452 
1 1:-0.28629857 2:0.30886171 3:-0.31238747 4:0.24335497 5:0.30781554 6:-0.97591427 
0.225828664112 1:-0.34478528 2:0.33987336 3:-0.33457294 4:0.3184063 5:-0.043742116 6:-1 
1 1:0.97818678 2:-1 3:1 4:-1 5:1 6:0.78116478 
0.0833943789883 1:-0.87457396 2:0.85589657 3:-0.83917724 4:0.81919061 5:-0.49473482 6:-0.54501537 
